simple_rnn/simple_rnn_cell/kernel:0
(11, 8)
[[ 4.10491899e-02 -2.21306458e-01  6.39676228e-02 -3.66716564e-01
  -9.17775854e-02 -1.97768018e-01  4.43795711e-01  4.53803420e-01]
 [-4.37743902e-01 -2.36637622e-01 -8.13351423e-02  3.28814507e-01
   1.21457435e-01 -1.88885897e-01 -6.76752105e-02  1.59819990e-01]
 [-8.89185667e-02  8.14520046e-02  1.34599298e-01  2.45824739e-01
   3.18506092e-01 -6.09563887e-02 -1.84283718e-01  2.08727136e-01]
 [ 2.43782569e-02 -1.55351935e-02 -8.69857013e-01  8.08473229e-02
   7.65672028e-02  8.73629302e-02  9.14779529e-02  8.91790912e-02]
 [-3.08493376e-01  2.13758498e-01  5.10144141e-03  1.76098406e-01
  -2.38130525e-01 -4.02782783e-02  1.28209159e-01  1.04506046e-01]
 [-4.42850441e-02 -7.56993657e-04 -3.72090377e-04  1.68327000e-02
  -3.59971635e-02 -2.29105502e-02  4.89174761e-02  4.66222279e-02]
 [-4.70801331e-02 -2.68244952e-01  1.91587787e-02  1.91612601e-01
   2.82959431e-01  4.52503502e-01  3.87966871e-01 -3.81368212e-02]
 [-2.67263442e-01  1.96387753e-01  1.21838343e-03 -3.68949533e-01
   1.84069514e-01  1.43877029e-01 -1.92148224e-01  8.33310485e-02]
 [-3.59967858e-01  4.70874123e-02 -2.69271787e-02 -3.01498532e-01
   1.44705281e-01 -1.70658797e-01  4.22145098e-01 -5.32570124e-01]
 [-4.63639311e-02 -2.64134616e-01 -4.11325842e-02 -5.35281226e-02
   6.30340949e-02 -6.48419797e-01 -2.02609584e-01 -1.06524527e-01]
 [ 3.79259795e-01  7.12763131e-01 -1.17269643e-02  1.45868450e-01
   3.96400690e-01 -1.60632148e-01  2.33156815e-01  2.02084959e-01]]
simple_rnn/simple_rnn_cell/recurrent_kernel:0
(8, 8)
[[-0.05831971  0.01727335  0.09870316  0.17224497  0.1706694   0.16132647
   0.1629042   0.15272638]
 [ 0.07504808 -0.17663509  0.16131034  0.37621722  0.08380796  0.2070368
   0.17145441  0.31219903]
 [ 0.12865643  0.14723545 -0.18807681  0.16447604  0.07765846  0.18570098
   0.10900395  0.17733365]
 [ 0.1478927  -0.04832296  0.029379   -0.07264169  0.13648266  0.14950912
   0.20049636  0.15171404]
 [ 0.04388953  0.08413539  0.1205297   0.04099324 -0.23869003  0.1061156
   0.05497963  0.13434339]
 [ 0.05443335  0.05544892 -0.00898973  0.03903021  0.13716811 -0.27584627
   0.02331975  0.01331698]
 [ 0.12047553  0.10383911  0.06958533  0.20885523  0.02205126  0.2627971
  -0.24947263  0.08717136]
 [ 0.18877682  0.22537082  0.01728955  0.12553409  0.15886652  0.0714535
   0.13957624 -0.22149017]]
simple_rnn/simple_rnn_cell/bias:0
(8,)
[0.441976   0.7549673  0.5329501  0.32093194 0.5163003  0.38621885
 0.4867586  0.43131813]
dense/kernel:0
(8, 33)
[[-4.70447615e-02 -3.66973251e-01  1.34548187e-01 -1.80401623e-01
   8.45150426e-02 -1.00640982e-01  2.50107467e-01 -8.73581022e-02
  -3.67585510e-01  4.43697162e-03  8.91655236e-02 -3.40675682e-01
   7.23916292e-02  3.20807397e-01  1.80201218e-01 -1.48844510e-01
  -1.66436970e-01 -2.57173683e-02 -1.05096050e-01 -7.81119764e-02
   1.43693119e-01  1.21654764e-01 -1.02101013e-01 -1.58382520e-01
  -2.25899979e-01 -1.40683234e-01  1.05612472e-01 -8.92350525e-02
   4.24551636e-01  1.64314508e-01 -3.82408164e-02  3.45891625e-01
  -2.75657177e-01]
 [-2.27179945e-01 -1.54386818e-01  3.51847410e-01 -2.60766178e-01
  -3.72689128e-01 -1.42620370e-01 -2.06247121e-01 -2.53240198e-01
   2.82491237e-01 -2.06206501e-01 -9.78022292e-02  1.29037172e-01
  -1.10717945e-01  2.12847646e-02 -2.46558815e-01  1.75272916e-02
   1.77485466e-01 -1.21656463e-01 -4.30441722e-02  2.70793706e-01
   1.31199911e-01  2.09253237e-01 -1.55767605e-01 -7.57537112e-02
   5.54051399e-02 -2.02014178e-01 -2.00806540e-02  2.45442286e-01
   1.35854438e-01 -1.81397021e-01 -8.73367265e-02  2.42719144e-01
   1.56709865e-01]
 [ 1.82682425e-02  4.52502333e-02  1.61669031e-01  2.39202678e-01
   2.11027041e-01 -5.76583780e-02 -3.82903248e-01 -2.78774530e-01
  -1.03992121e-02  3.28736573e-01  3.19821090e-01 -2.14254521e-02
  -7.72114992e-02  1.25337496e-01 -1.24418214e-01 -1.66222021e-01
  -2.59075314e-01  1.47901908e-01  1.78419054e-01 -2.90178418e-01
  -3.94492477e-01 -2.06020358e-03  7.77928531e-02  8.14442560e-02
  -6.72351345e-02 -2.83063084e-01 -1.30701050e-01  1.15453467e-01
  -5.87575398e-02  1.40452325e-01 -1.34306401e-01 -2.20506012e-01
   1.54593974e-01]
 [ 2.96395034e-01  1.58044010e-01 -3.14979225e-01 -1.51142374e-01
  -1.68493867e-01  1.79203432e-02  1.02022402e-01  8.07490274e-02
   8.96850601e-02  3.27304304e-02  1.05490601e-02  3.33407938e-01
   1.10011756e-01 -4.46531683e-01 -2.70163622e-02 -3.03547144e-01
  -1.15066931e-01  8.58581141e-02 -1.54662311e-01  1.26122698e-01
   1.00264460e-01  1.29192293e-01  3.08040436e-02  1.09244041e-01
  -3.61399084e-01 -4.64149974e-02 -2.42793933e-01 -5.49768470e-02
  -3.59304547e-01  9.17483792e-02  1.91908687e-01 -3.67813945e-01
  -2.39389777e-01]
 [ 1.42947957e-01  1.77960008e-01 -3.28286350e-01  5.06118424e-02
   1.13539584e-01 -2.24588037e-01  2.63339370e-01 -1.68259423e-02
  -2.63298541e-01  2.78011829e-01 -3.66140753e-01  6.78602457e-02
  -4.85806316e-02  3.03783864e-01 -2.39029542e-01  2.85262972e-01
  -3.12029511e-01 -9.82731432e-02 -1.81128949e-01 -7.20151812e-02
  -5.86842895e-02 -4.53371219e-02 -1.98975429e-01  3.22694242e-01
   1.67070538e-01  3.20262611e-01 -7.44117275e-02  2.12627441e-01
  -3.59352916e-01 -2.25127876e-01 -4.30916905e-01 -6.85578361e-02
   2.70613104e-01]
 [-6.26350269e-02  2.65497357e-01 -1.46484971e-01  2.53004849e-01
  -1.05313823e-01 -7.84756467e-02 -9.40881819e-02  1.28783286e-01
   7.38161057e-02  1.40457034e-01  1.81782246e-01 -2.41182134e-01
  -2.20922589e-01  1.00462995e-01  2.41841167e-01  2.31019452e-01
   2.09093973e-01  1.82080209e-01  1.47353128e-01  3.73625010e-01
   3.32976431e-02  1.50195017e-01  1.71290278e-01  8.29433203e-02
  -9.83750150e-02  1.39743179e-01  1.11402363e-01 -2.56484836e-01
   2.83239394e-01 -1.01089634e-01  2.00009465e-01  2.02958077e-01
   2.81949192e-01]
 [-3.72607827e-01  9.13645402e-02  2.61309773e-01 -1.97574407e-01
   3.10897887e-01  4.69855249e-01 -1.06996875e-02  1.60505027e-01
   3.17489088e-01 -2.62483507e-02 -1.32136539e-01 -2.63073266e-01
  -1.09640241e-01 -2.09647894e-01 -7.68340603e-02  3.33935418e-03
   2.50646025e-01  2.88732141e-01 -2.65932977e-02 -6.23417459e-02
  -1.90112576e-01 -1.15751877e-01 -1.84215009e-01  2.35772192e-01
   3.03681314e-01  8.58157128e-02 -8.02043900e-02  1.78204730e-01
   2.05934078e-01  1.81974143e-01  2.20548466e-01 -1.45716723e-02
  -2.18013674e-01]
 [ 2.92387217e-01 -9.82761458e-02 -4.53093052e-02  2.36866400e-01
   1.47358343e-01 -1.88824963e-02 -1.59386411e-01  1.24046385e-01
  -1.53467864e-01 -2.45539114e-01  9.42218176e-05  1.60596594e-01
  -1.20894097e-01 -1.69568822e-01 -9.53925699e-02  2.65796930e-01
   2.27478355e-01 -1.04575828e-01  1.56692907e-01 -3.03601861e-01
   2.78666168e-01 -2.60558158e-01  7.28728101e-02 -3.94490421e-01
   2.17731521e-01 -2.01514900e-01  3.67572993e-01 -2.12481588e-01
  -1.74592286e-01  2.19577566e-01 -2.07483426e-01 -1.70944750e-01
  -1.49452746e-01]]
dense/bias:0
(33,)
[-0.1738199  -0.24222353  0.02586624 -0.00483851 -0.17363383  0.1948755
  0.1347927   0.0415834   0.10050638 -0.29935375  0.11774884  0.13231753
  0.56869835  0.02949426  0.38531104 -0.23654313 -0.10852101 -0.4395014
  0.0547106  -0.09824436 -0.2403248  -0.28685665  0.30168468 -0.19702652
  0.04765451  0.38229024 -0.0374134  -0.00329178  0.0169889  -0.3533069
  0.29848027 -0.01736188  0.16257723]
simple_rnn_1/simple_rnn_cell_1/kernel:0
(33, 100)
[[ 0.04689235  0.316806   -0.04646997 ...  0.03891656 -0.15996388
   0.26541236]
 [-0.06748375  0.14668913 -0.12639987 ... -0.1190813   0.06794283
   0.24643517]
 [-0.1516103  -0.11628197  0.03175935 ...  0.14457701  0.00529427
  -0.13521706]
 ...
 [ 0.02122586 -0.20893924  0.02897844 ...  0.0022549  -0.04163961
  -0.34297433]
 [ 0.13596681 -0.1230044  -0.00467316 ...  0.11620986 -0.05737542
  -0.39179853]
 [-0.15632929 -0.05927885  0.07625658 ... -0.04696539  0.10685622
  -0.00968461]]
simple_rnn_1/simple_rnn_cell_1/recurrent_kernel:0
(100, 100)
[[-0.05239591  0.03770641 -0.20360559 ...  0.10268912  0.06685468
  -0.03377516]
 [-0.04346376 -0.26224503  0.1116787  ...  0.07996445 -0.16278122
   0.06603719]
 [ 0.09389117  0.0504963  -0.02600279 ...  0.01269304 -0.09552312
  -0.0733416 ]
 ...
 [-0.09497264 -0.18769562  0.1458995  ...  0.0106255  -0.10391082
  -0.23375471]
 [-0.10196514 -0.00084499  0.03806791 ...  0.04046538 -0.02262258
   0.06032897]
 [ 0.07315806  0.04011459 -0.02866498 ...  0.11533748  0.06354718
  -0.17356569]]
simple_rnn_1/simple_rnn_cell_1/bias:0
(100,)
[-0.05474526 -0.03079187 -0.08632267 -0.0715792  -0.1273893  -0.01220775
 -0.20032853 -0.16181435  0.06321035 -0.1409571  -0.18867435 -0.12589338
  0.06902273 -0.25503588 -0.01922957 -0.03807388 -0.10405675 -0.00915839
 -0.06009482 -0.00136273 -0.13217415 -0.0763308  -0.10812043 -0.08207283
 -0.09397902 -0.04040889 -0.15296294 -0.14213128 -0.01411433  0.05931104
 -0.20360026  0.05471045 -0.12690648 -0.05466415 -0.11191585 -0.09319699
 -0.03884802 -0.01441164  0.02392748 -0.16462584  0.05201037  0.03797008
 -0.0485954   0.01074639  0.00812285 -0.05424936  0.02239097 -0.03693872
 -0.06993449 -0.16529594  0.0869354   0.01696195 -0.0388572   0.02534046
  0.01691772  0.02436731 -0.11948071 -0.17243461 -0.16312036 -0.0652307
 -0.0800669  -0.02795478 -0.12824199 -0.06851495 -0.02890663 -0.1439525
 -0.08218063 -0.13192923 -0.02251174  0.05769575 -0.01667518 -0.05692706
 -0.11005452  0.00426433 -0.08458508 -0.19181664 -0.0082887  -0.04043552
 -0.02576353 -0.06240231 -0.21576418 -0.10812991 -0.00446242 -0.03795467
 -0.02205623 -0.07542385 -0.00900891 -0.11093372  0.04452096 -0.12658176
 -0.12631503 -0.01393596 -0.10624682  0.00560945 -0.06914579 -0.01928122
 -0.0992891   0.06653138 -0.1141609  -0.11578347]
dense_1/kernel:0
(100, 22)
[[-0.19548163  0.09027953  0.09863774 ... -0.07307136 -0.01178157
   0.24524222]
 [ 0.00576673 -0.05687806 -0.039354   ... -0.03832782  0.09303087
   0.03920421]
 [-0.05664656 -0.0648758  -0.02554723 ...  0.12326437  0.01576658
   0.13442385]
 ...
 [-0.14651999 -0.06556649 -0.14630781 ...  0.03730525  0.1705993
   0.03553723]
 [-0.03553021  0.04307729 -0.00269756 ... -0.04865007 -0.207739
  -0.10029057]
 [ 0.00712838  0.08865989  0.02331    ...  0.0195407  -0.19596182
  -0.02699154]]
dense_1/bias:0
(22,)
[-0.02974344 -0.01478907  0.00280612  0.00620432 -0.02326702  0.025386
  0.04157707 -0.00675348 -0.00398727  0.0157968  -0.05048997  0.03804087
  0.01397296 -0.06982288 -0.01950678  0.00060379 -0.0045223   0.01520795
  0.01839668  0.01495802 -0.00333065  0.03844749]
dense_2/kernel:0
(22, 11)
[[-0.1480537  -0.00269266  0.00454967 -0.13901962 -0.07555127 -0.07511317
  -0.16772719  0.01635602  0.06879561  0.08290324  0.0771916 ]
 [-0.02441832  0.0052231   0.00863144  0.04936707  0.07886227 -0.00845419
   0.22526671 -0.00270529  0.12991704  0.03835308  0.14574713]
 [-0.04618622 -0.06200613 -0.06274977  0.18182501 -0.08961272 -0.01397647
   0.01880392  0.16210686 -0.04107089 -0.09063683  0.08888433]
 [ 0.07593205  0.00570763  0.01043258 -0.03598648  0.01780172 -0.02190926
   0.07077035  0.0401372  -0.17251825 -0.07649062 -0.14521505]
 [-0.00374795  0.00452754 -0.00571262 -0.14093612  0.15906018  0.02769784
   0.18543749 -0.01838601 -0.06609813  0.06699106 -0.08812033]
 [ 0.06246264 -0.12943177 -0.12674943 -0.10534436 -0.09853639  0.03664286
  -0.0704193   0.0276916  -0.19224295 -0.06555285 -0.04916294]
 [ 0.1769675  -0.05164545 -0.05953123  0.12715335  0.08239775  0.06086658
  -0.15353562  0.18673764 -0.0073925   0.24336126  0.0499444 ]
 [-0.06712942  0.05144415  0.04357304 -0.05293517  0.11225917  0.08145694
  -0.01341293  0.022955   -0.11206186 -0.10399745 -0.14514837]
 [ 0.12173406  0.1730756   0.1856868  -0.12188905 -0.04782871  0.00385365
  -0.00474621  0.06939042  0.00293458 -0.04799813  0.02319019]
 [-0.05972505 -0.03927604 -0.03821193  0.01057797 -0.11217681 -0.1076787
  -0.04843182  0.10121285 -0.02354842  0.08618113  0.08387545]
 [ 0.15280569  0.06537245  0.06735593  0.08340589  0.13129231 -0.00777123
  -0.05618756 -0.09915959 -0.08691855 -0.07498094 -0.09939181]
 [ 0.04813031 -0.06333963 -0.07578173  0.06660652 -0.07491051 -0.05851493
  -0.00493923 -0.19986783 -0.02853947  0.16392787  0.11585521]
 [-0.16607761 -0.10221961 -0.09322108 -0.08977222  0.06715626  0.07979656
  -0.06389438 -0.03743586 -0.00932812 -0.10782952  0.09551503]
 [ 0.07583235  0.13629386  0.1331947  -0.08752155  0.0139775   0.06646571
   0.01874773 -0.10943492  0.02810617  0.0645624   0.15259516]
 [-0.03426068  0.04449148  0.04464587 -0.12552248 -0.00949585 -0.01782913
   0.02972679  0.12194628 -0.18491182 -0.09374364 -0.12113822]
 [ 0.01398478  0.12122815  0.11334258  0.10874848 -0.04461253 -0.03119707
  -0.14879474 -0.11458801 -0.00665657  0.10955883  0.04962801]
 [ 0.05981262  0.10048323  0.08918453  0.02060318  0.00951832 -0.02806495
   0.09352465  0.04720527 -0.12099239  0.0928498  -0.13570108]
 [ 0.05331328  0.13943398  0.14149514  0.1519711   0.04850636  0.07508291
   0.00992774  0.0750054  -0.16719598 -0.13005404  0.0319456 ]
 [-0.11938889 -0.02523415 -0.02883245  0.11936828  0.02995792 -0.05453753
  -0.08455294 -0.00354301 -0.13129985 -0.13517869 -0.13088614]
 [ 0.05912755 -0.03713918 -0.03017729 -0.07968992  0.09428793 -0.03065829
  -0.20042792  0.03662556  0.11148526  0.10629637  0.11378831]
 [-0.1335955   0.1028239   0.09265976 -0.04805642 -0.09406058 -0.05056037
   0.07138725 -0.02470046 -0.03898223  0.1668157   0.04724217]
 [-0.21889476  0.01584384  0.00117576  0.15322243  0.10732382  0.08916137
  -0.07069088 -0.03600758  0.00669434  0.04002866  0.04362861]]
dense_2/bias:0
(11,)
[-3.7919369e-02 -5.5604607e-02 -6.6848218e-02  1.2782644e-01
 -4.1762985e-05  7.5275172e-03 -7.7466115e-02 -1.6452448e-01
  1.1699077e-01  3.9502006e-02  1.0307024e-01]
